<?xml version="1.0"?>
<opencv_storage>
<stage4>
  <maxWeakCount>30</maxWeakCount>
  <stageThreshold>-7.4967819452285767e-01</stageThreshold>
  <weakClassifiers>
    <_>
      <internalNodes>
        0 -1 38830 -6.9991439580917358e-02</internalNodes>
      <leafValues>
        6.7905408143997192e-01 1.1857292801141739e-01</leafValues></_>
    <_>
      <internalNodes>
        0 -1 542 2.5333274155855179e-02</internalNodes>
      <leafValues>
        -1.4840090274810791e-01 4.0287569165229797e-01</leafValues></_>
    <_>
      <internalNodes>
        0 -1 34902 4.7173756174743176e-03</internalNodes>
      <leafValues>
        -1.6835846006870270e-01 3.5313788056373596e-01</leafValues></_>
    <_>
      <internalNodes>
        0 -1 31456 2.5745837483555079e-03</internalNodes>
      <leafValues>
        -2.5921410322189331e-01 2.5963747501373291e-01</leafValues></_>
    <_>
      <internalNodes>
        0 -1 25974 -1.3386696577072144e-02</internalNodes>
      <leafValues>
        -7.5794970989227295e-01 6.9909863173961639e-02</leafValues></_>
    <_>
      <internalNodes>
        0 -1 25235 1.4161238074302673e-01</internalNodes>
      <leafValues>
        7.6369851827621460e-02 -6.3583588600158691e-01</leafValues></_>
    <_>
      <internalNodes>
        0 -1 20064 1.8215741962194443e-02</internalNodes>
      <leafValues>
        -1.9859491288661957e-01 2.6619568467140198e-01</leafValues></_>
    <_>
      <internalNodes>
        0 -1 36269 2.4654581211507320e-03</internalNodes>
      <leafValues>
        -1.7077814042568207e-01 3.3892545104026794e-01</leafValues></_>
    <_>
      <internalNodes>
        0 -1 40060 1.8530595116317272e-03</internalNodes>
      <leafValues>
        -1.6477675735950470e-01 3.4952244162559509e-01</leafValues></_>
    <_>
      <internalNodes>
        0 -1 35856 6.7535415291786194e-04</internalNodes>
      <leafValues>
        -2.2595423460006714e-01 2.5150603055953979e-01</leafValues></_>
    <_>
      <internalNodes>
        0 -1 30263 -4.7416994348168373e-03</internalNodes>
      <leafValues>
        2.0771929621696472e-01 -2.6982092857360840e-01</leafValues></_>
    <_>
      <internalNodes>
        0 -1 37613 -2.9913824982941151e-04</internalNodes>
      <leafValues>
        2.5439888238906860e-01 -1.7597433924674988e-01</leafValues></_>
    <_>
      <internalNodes>
        0 -1 36366 1.4033351093530655e-02</internalNodes>
      <leafValues>
        6.6348552703857422e-02 -7.2761350870132446e-01</leafValues></_>
    <_>
      <internalNodes>
        0 -1 39589 -1.7273657023906708e-02</internalNodes>
      <leafValues>
        3.7036788463592529e-01 -1.4594462513923645e-01</leafValues></_>
    <_>
      <internalNodes>
        0 -1 35968 -6.3098166137933731e-03</internalNodes>
      <leafValues>
        -5.1308333873748779e-01 9.6346437931060791e-02</leafValues></_>
    <_>
      <internalNodes>
        0 -1 32000 1.6395675484091043e-03</internalNodes>
      <leafValues>
        -1.6937029361724854e-01 2.8079751133918762e-01</leafValues></_>
    <_>
      <internalNodes>
        0 -1 25668 4.9471724778413773e-03</internalNodes>
      <leafValues>
        -1.8649911880493164e-01 3.2674610614776611e-01</leafValues></_>
    <_>
      <internalNodes>
        0 -1 707 5.5155895650386810e-02</internalNodes>
      <leafValues>
        -1.2149922549724579e-01 4.0032452344894409e-01</leafValues></_>
    <_>
      <internalNodes>
        0 -1 42307 -2.8172232210636139e-02</internalNodes>
      <leafValues>
        5.2600812911987305e-01 -8.5555121302604675e-02</leafValues></_>
    <_>
      <internalNodes>
        0 -1 3517 -2.9614085797220469e-03</internalNodes>
      <leafValues>
        5.2990746498107910e-01 -1.0187214612960815e-01</leafValues></_>
    <_>
      <internalNodes>
        0 -1 33357 1.3657709583640099e-02</internalNodes>
      <leafValues>
        -1.2104837596416473e-01 4.1875484585762024e-01</leafValues></_>
    <_>
      <internalNodes>
        0 -1 29892 -6.7080743610858917e-03</internalNodes>
      <leafValues>
        2.6458591222763062e-01 -1.7958830296993256e-01</leafValues></_>
    <_>
      <internalNodes>
        0 -1 31863 5.4436561185866594e-04</internalNodes>
      <leafValues>
        -2.0201086997985840e-01 2.6751154661178589e-01</leafValues></_>
    <_>
      <internalNodes>
        0 -1 6623 -1.5336637385189533e-02</internalNodes>
      <leafValues>
        -8.1403505802154541e-01 6.2734261155128479e-02</leafValues></_>
    <_>
      <internalNodes>
        0 -1 33119 -2.2714738734066486e-03</internalNodes>
      <leafValues>
        2.7552184462547302e-01 -1.9039508700370789e-01</leafValues></_>
    <_>
      <internalNodes>
        0 -1 2170 2.4649890139698982e-02</internalNodes>
      <leafValues>
        -1.0126759111881256e-01 5.4234236478805542e-01</leafValues></_>
    <_>
      <internalNodes>
        0 -1 39795 -7.7336537651717663e-03</internalNodes>
      <leafValues>
        4.2316517233848572e-01 -1.0908763855695724e-01</leafValues></_>
    <_>
      <internalNodes>
        0 -1 40257 6.7423125728964806e-03</internalNodes>
      <leafValues>
        9.8438397049903870e-02 -5.0701087713241577e-01</leafValues></_>
    <_>
      <internalNodes>
        0 -1 32507 3.8496253546327353e-04</internalNodes>
      <leafValues>
        -1.9162757694721222e-01 2.3548810184001923e-01</leafValues></_>
    <_>
      <internalNodes>
        0 -1 6884 -1.6105499118566513e-02</internalNodes>
      <leafValues>
        -6.6619509458541870e-01 8.1788502633571625e-02</leafValues></_></weakClassifiers></stage4>
</opencv_storage>
